{"weight": [[[766.9978357452227, 765.8151366628696, 767.3969715223676], [766.4586307402413, 768.211937692499, 767.2526512929206], [767.3696815643237, 767.5774486776703, 767.4847777233564], [770.6458510585695, 767.4264729288219, 766.9218297859182], [766.2294034427727, 766.6274779896734, 768.5874970195815], [766.5400702564026, 767.7187096328281, 766.9549928592302], [767.9183566006835, 767.7733822076578, 767.3972930952408], [768.0458077431275, 767.7463316298623, 766.2457302273082], [767.0888804802404, 768.709393346622, 768.2163934056083], [769.36649212959, 766.4258693735741, 766.1365472224828], [766.6346558016522, 766.8051258723705, 768.3430652303076], [765.1350391944865, 769.0861093586276, 768.0837084905189], [765.9467113683332, 766.597697938974, 767.4130656440879], [765.4671754192965, 766.7774991277084, 768.6154614329372], [766.8790802887412, 769.3334720523713, 767.0242368691323], [767.0600844636291, 767.2555861755401, 767.3200368403326], [766.5628367961086, 768.5296972681941, 767.741213644313], [767.2000892923692, 767.7348888285527, 765.9754833896924], [767.4295602249935, 767.6423348150355, 767.9741900305793], [767.3853728540354, 764.7986014679101, 769.4040325018744], [767.2535085995167, 766.5218510369306, 767.8272520932481], [766.2467269209209, 767.400953421782, 766.3004375755291], [766.1314846047618, 768.1229612867515, 764.7951869816981], [767.4228140249189, 767.5066153261322, 765.5100932428796], [767.3454474406095, 768.341623646069, 768.1278319690676], [767.4055239654857, 768.0242198195407, 768.3189035320328], [767.1885947313425, 767.6139421007782, 766.8763179277656], [767.4699112338075, 767.8425924812519, 765.8399881029028], [767.9097743264291, 767.7310873728383, 768.5835881084116], [768.205891030116, 765.4518622877719, 767.5225710372994], [768.7183354459254, 766.6562848021889, 766.9449024199834], [766.3339456393963, 766.0634531921124, 766.8336168700022], [767.2013898578635, 769.9841561216937, 768.1479844775271], [767.6164751136204, 767.7226941356156, 767.0500698126851], [768.1920179981763, 766.0856606030121, 767.7554668965439], [767.8210610736268, 768.8603043036286, 767.826728899183], [767.325425459835, 766.6977976288384, 766.2598763388502], [766.3787372993344, 764.9435253025625, 766.935266148418], [767.5680854183989, 768.0528441833397, 768.1671465395481], [767.5179920601953, 766.1147044545152, 767.4630086964797], [767.0585848763332, 767.8179045554817, 767.4746088206867], [768.6254100655482, 766.5626649610291, 767.7090597476123], [767.9424625157859, 766.1249358573197, 767.3970877956268], [767.158996744247, 768.2608414693394, 766.7042754014523], [769.2700793048108, 767.4627287539253, 767.4256707998899], [766.25877858302, 767.738478910696, 767.5508112098236], [768.3074968590767, 766.870618482736, 766.9665435894088], [767.3554884634426, 767.9190910500671, 766.937446024068], [766.1887426569909, 767.2628348969785, 766.0978813889386], [767.2172684306262, 766.6564061713271, 766.5147790422842], [768.7300285347834, 766.99642736882, 766.724162876404], [765.5044383097846, 767.4868815430251, 767.9355943356842], [767.7712104072704, 767.1967533898904, 767.215594069262], [766.707771127746, 767.3156343906368, 768.4162690513841], [766.9799735497105, 768.7610095547328, 769.9893581575094], [767.1199107764129, 765.0955851732532, 767.581871121051], [767.2977171506269, 768.1893865570206, 768.4226874282514], [768.8161144596285, 767.3592550073203, 767.113723584261], [768.7017271618298, 766.6888970521978, 766.409307021397], [767.2589783051241, 769.3746848944567, 767.3202370889923], [768.5705670099782, 768.0158497354026, 766.9554590471465], [768.107023093054, 767.8958914334563, 769.2016483902463], [766.70327519164, 766.1208713075811, 766.9099809585385], [766.0255067674867, 768.5036391120017, 767.317436210794], [768.1509828886348, 765.7735922089029, 769.7222322700208], [766.2570183774079, 767.1071353087931, 767.6088379379447], [765.9011531487719, 766.7655164505526, 768.5975630271329], [767.4487279187325, 768.2025578206452, 769.0258526780179], [766.054796643742, 768.2847021622898, 768.4800679133956], [768.4656353497925, 769.1203613197994, 766.4551494134242], [767.7039442644949, 768.7231752072881, 766.8595067511129], [767.8595885745673, 766.7998817206959, 768.2180348472424], [767.6491714343111, 765.0722545271598, 764.5933478485409], [768.116352001345, 767.1223993343614, 766.366486828856], [769.1024621925316, 766.8863697717105, 766.4471896691015], [768.6492236701168, 766.070747732596, 767.1673079316366], [766.7815895325492, 767.9191172994052, 767.5724906885417], [767.0819508284839, 767.3739685279348, 768.7148016839002], [767.5110817980243, 766.9209702132308, 766.2928026076239], [768.2767543232213, 764.421179123456, 766.7414853715176], [766.9756397937773, 766.4327918077491, 767.4554878045627], [766.8579195531928, 767.6251459193599, 768.1981448708033], [767.5592902194018, 767.3009411602208, 768.9573654403956], [767.1457236530606, 768.187796219585, 767.0401227722024], [767.9244837202144, 766.3825735636948, 767.7747561069585], [766.7744594687389, 767.5765747579952, 767.2858907539661], [766.9784601815057, 765.9183858466707, 765.8181735980432], [768.732018007374, 767.8823795367038, 765.667918581439], [769.1898768806233, 766.8396170942716, 767.1303057851534], [767.6142499188423, 766.839799580774, 767.9542696923862], [766.5793304903187, 767.3563059598335, 768.0160460734852], [767.9519666779355, 767.3562918672143, 768.6844880019572], [765.9365429345027, 767.1783119102043, 765.2399366766484], [766.2922419014823, 766.8568682422725, 769.0749115944326], [767.8876350475476, 766.6416732435206, 767.7057989415783], [766.47944746122, 767.9589156800606, 768.1707894462005], [766.9036314481813, 766.3905360604225, 768.5926418804689], [765.6602152456479, 769.0773729084864, 766.2477478073607], [768.1281246305072, 767.9609907366622, 766.9865948604089], [767.6710459960556, 767.0310599161622, 765.6947785647488], [767.7016941195519, 767.2125804452397, 766.7922808888303], [766.935623660312, 767.7261151922934, 767.7736754028471], [767.263445730263, 768.143382782997, 766.6379798687559], [766.1810622671516, 767.3663843695937, 767.80785821454], [767.9288169632051, 766.8294836797921, 766.0793228919443], [768.8821748477898, 767.1222763700206, 766.1698697503192], [768.8421701717533, 765.9772867992323, 769.5496100777215], [767.4086475604921, 766.8004816684632, 766.2757354189047], [768.0327135440774, 768.2095119185291, 769.3634452093687], [766.9986683504136, 767.8551232241304, 767.5617940811229], [766.8401671735702, 767.5573280703833, 766.9375257759813], [767.55423757645, 766.8427435593775, 766.5082668399867], [768.0905645793913, 767.1946248450864, 767.3637952973723], [767.2113501301302, 769.3905709371874, 768.3920806057978], [769.3391409924205, 765.861343463523, 768.0760764697706], [767.7883482656783, 768.4710210563854, 768.8116917056403], [768.9506395554041, 766.4327367370635, 767.0015939157084], [767.572916836806, 768.4505570450989, 766.2707444258473], [767.0354165349582, 767.3775302215187, 767.9115744358236], [767.4514974543027, 767.717522059139, 766.8409526812947]], [[-1.2088052972956604, -1.8587133369849016, 1.1747634704309449, -21.432530904186912, 26.335511569559173, -1.14933893726338, -1.2587834938761024, -1.0338347456366361, -0.7610892005735209, -25.171587922203038, 0.7437359332200965, 3.0711046396217565, 1.5695021921643146, 8.504880148798385, 3.0487121960454773, -0.22893222488671813, 0.9457260245959197, 1.1025189324095654, 0.4014222010887904, 1.5060217055300547, 0.9743438000024839, -1.4768356511932192, 0.771191495626451, 0.06110394479181048, -0.07002873896740726, -0.40768963929873486, -1.3842434869023084, -0.8742433513850761, -2.2954530947835146, -1.9147242697811588, -3.4195532042133987, -0.936403229444131, 3.3982148687233265, -3.1831781786650977, -2.4934647547589233, 1.321816231760963, -3.2138189934692702, -2.0170409211075144, 0.4194740734500427, -3.268614203098476, -1.0381929998454713, -0.4642671276787503, 0.43696782489716973, 0.8792504434814413, -0.4036650806455517, 0.7862618601542698, -2.4143053121748697, 0.6645937485080359, -0.004965687768892456, -1.626857078143888, -1.7523587960808777, 0.351301801463705, -0.37780612896528737, 2.3884343371251235, 14.828321372094095, 0.22727811972063253, -0.5163850447533492, -2.766752329878046, -0.19949911678905738, -1.556140803965946, -0.7243596063139853, 1.1130847228419305, -0.22151049798255326, -0.6086489875235938, 1.1993526570708095, 0.12403240542846285, 1.7600041802519155, -0.37695603264994365, 0.9371953003857466, 1.0982972147731327, 2.287412199872348, 0.9850697945717867, -9.111506281903651, -1.0807401011378754, -3.3091696464103597, -3.0037056573364502, 1.4577297592311518, -0.7710148127602653, -3.059110708964403, -3.2927587995860756, 0.08825271232938052, 2.4901922409033634, -1.0256468153041483, -0.7868298201355276, -0.32995618624007655, 0.69273877234984, -3.985351415103029, -1.0674104724296332, -2.8862474526524062, 1.2413678881161863, -0.09668262268461493, -1.5991094192059547, -0.8718598040893032, 27.676045461377843, -0.6340366933302429, 4.864987795055365, 0.07367794550255034, -1.4841572414338686, 0.014769598278187163, -0.6443904478362498, -1.4210614857493922, -2.3094265198888007, 0.8700838850349794, 0.47880453112997506, -2.3080733391081525, -21.45579910900977, 0.7820317294560957, -0.9056290671360142, 0.6452971624645291, -0.22071124949116086, -1.9713448441966523, -0.35084837479820746, -2.144973432320768, 2.288291545981794, -0.32365948172665654, 3.4106806718200566, -2.160069445532904, 0.12405430363852794, -1.1190298987587401, 0.25045553833559525], [-1.2943335828072742, -0.9318062170099054, -0.022794869884142442, -2.0207574793812553, -3.646919631168267, -3.928295945145845, -1.9746536726915054, -1.2971074574683772, -3.360325085159468, -1.426084008224747, -1.4639359754925205, -2.9059656787677786, -0.47010472319861724, -6.82896416085176, 10.712441166833042, 0.1916655287701076, -0.7199286041692553, 7.192797574942544, -1.375492023156305, 16.72601818487312, 7.209379588510301, -0.7092939414186928, -3.950274625053422, 2.1387158879142443, -1.299748611118542, -1.8885363746099515, -3.4325039562144846, 4.281643707634809, -0.08606742423416643, -0.013215930474838126, -5.45394004994102, -0.5559063993483323, 5.7053751439973, -2.4135218370945473, -2.3273654493968174, 2.0143773314072715, -1.8410850398795475, -0.5192097575054265, -1.7109706642454052, -1.1810541918652488, -3.6227661896142, 0.7175867874621223, -0.05421751863314888, -3.0044970125821826, -0.21862623538592182, 0.4372807774140894, -2.1697964889475467, -1.6703718531941278, -4.527226050314613, -3.179143302129145, -2.8122412995057995, -0.8190198076683782, -1.949724634112142, 0.8290894201082623, -8.488670921529431, 14.883419126333411, -0.5654769708583457, -2.8632101761123567, -0.7172470216925949, -3.931292456918474, -1.232499808283791, -0.5795755981887108, -1.0607710434761415, -0.8399729686806702, 18.3023612535779, 1.29156589026695, 6.964440228903093, -2.3520978491100952, -0.23964129711943047, -15.54321891360699, 2.6945626225149466, 10.50208994968753, -0.8474734006313172, -1.6162722304465198, 2.70409340068703, -3.1652581268255093, -0.9196696356247568, -1.2322125670836679, -1.9096333275468866, -2.3754628613598023, 3.1441298831237954, 0.36925070618492845, 0.40529336456172077, -5.070447985384239, 11.18540739483176, -1.6636523326080985, -0.6044664348486172, 5.118195813086842, -2.317353673047028, 5.737388675461498, 1.4516269643814554, -2.4692333496285017, -1.6254410760154159, -5.329959542318737, 1.3355814699409014, -3.6627308869225463, 1.568675523322453, -2.805460082549476, -1.7471436727265777, -1.3896895536849916, -0.9195273093069062, -1.0510376929768916, -0.17549206931265635, -1.632831048989855, -0.4608333630616232, -0.5876996215582053, 16.239007208520253, -2.584271378687307, 0.06535872282768339, -2.423513020530334, -2.1722176781371716, -1.5721190208467701, -2.9006948298021986, 2.1567261189291815, 8.151356293792228, 1.6241634741411601, -3.445685395690195, -1.702572990663587, -3.6568208662184243, -2.258576022225918], [0.24321078707285343, 0.08677573529794963, -0.2959383931698268, -2.9262534358262653, 0.2919819939808588, -3.8620521127928313, -2.741000561918475, 0.8234022382905948, -0.8546124157760597, -1.352471731294391, 1.6509889568491252, -8.607685244244685, 1.9711572102691948, -1.9186040144718697, -13.815880829980664, 0.9579367592952059, -1.444306335955896, -9.197952757455784, 1.2109197373669915, 20.44630361219795, 6.839309562871119, 1.421876677295972, -15.65911932125677, -4.713066242523231, -0.14316152340630023, 1.8920423288416734, -1.6433500727734707, -8.655112261104687, 1.919064908072286, 0.635549839210074, -0.9226633868811702, -1.5341293181119489, -6.851787839882395, -3.441887112808434, -2.0155083601612755, -8.120171024378742, -0.22017797327222344, 0.9121259680686955, -0.4946523496858713, 0.7877720658927654, -0.11156578276003737, 1.6725952432135016, 0.732935271714253, 0.9654873337546988, -0.38502793180902145, 0.44313856692935777, -0.595525791922215, 0.3112462939126142, -1.4554459759031992, 0.21703031184023075, -2.160840839462745, 0.5668070511901733, -0.19488961404642435, 2.106389655711964, -3.862105769300832, 15.107309998898431, 1.55680203845368, -0.8600306927891426, 0.12841309354414, -3.0778885705560244, -1.2167344542540066, 2.597335524672526, 1.3538478569391574, -0.4822267593561253, 18.786876478102965, 1.0568589550667151, 6.869484348070726, 0.7220201852419159, 1.0596535182371052, -12.886094803207328, -13.420757450942737, 7.7219298366914755, 0.24090536925789305, -1.6295157740863733, -3.2045941244340197, -1.1879985610089587, -0.4121831997589129, -2.0628638135227444, -0.35144344092114105, -0.36647333777240715, 2.9689421673882794, 1.1433404607542546, 2.293613609593276, -2.5413146312315984, 9.14572844963211, -0.12125563088396024, -1.0237851684248054, -13.603475060837315, -2.3755095922809417, 5.826608965532431, 1.8985122626076252, 0.31097946269129134, -1.6704499533089936, 0.8293983365599621, 2.056536153783733, -2.937701014552867, 3.739513245713658, -3.71308247718816, -1.0990349790522642, -0.8360348536690823, -1.3230769004260825, -1.2010553361564584, 0.6132943974237426, -0.412947707449358, -3.2924934187452166, -0.4136374403670869, 17.088220855870077, -2.037680358586548, 1.8632907347185643, -2.227206948627553, 0.6129893309195511, -1.1538558299715036, -1.5930499161937548, -4.763757559836808, 14.425230894387258, -2.0905066083901493, -2.1256010629120095, -2.336041981212583, -0.44502688502549864, 0.42869655077219443], [-3.0109566347499426, 0.6514566472907914, 0.42952785882757466, 27.323886210108373, 5.135351691226187, -2.8517162547421817, -0.41896860285009646, -0.5939760913464824, -0.6088658925225345, 21.800444878123578, -0.2621577332169726, 3.577256343263943, 1.5763019906955973, 3.7857790125554907, 0.6894138452103273, -0.09910004866987113, 0.2648215438651465, 1.376918804989469, -0.47349718812156255, 1.815205231865552, 0.1718258280228782, 0.39141235633239396, 1.2257177552832745, -0.2589494242705473, -1.7306194593010475, 0.47191685888928897, -1.845085865654301, -1.685299387157076, 0.02469093562661976, -0.8926347299660709, -1.1468830612469219, 0.8268630723378352, 2.655302153319333, -2.125482920230775, -2.1833858397541936, -0.21778502611749245, -2.807193912499768, -1.4047232214839724, 1.042202038925647, -2.0502393162356496, -0.6026387783642666, -1.1324366472133687, -1.8265373605620778, -1.1291280374725787, -1.2000589631706882, 1.1537246558583603, -2.2243267783284875, 0.47295801719580216, -1.1384497510911162, -3.425656967930217, -1.4907639963783759, -0.6740860273642248, -0.9724011021358892, 0.7746560306404797, 7.071645746704782, -0.24540766596558367, -0.4245100990229517, -1.6809683886212599, -1.6993786937149309, -2.140618236015043, -1.4142603162412402, 1.080754527361852, -1.130358196418564, 0.06668569199471491, 2.062292617689385, -0.9078899985962996, 0.25297303104785757, -0.3366062875948303, -0.35701948182873594, 0.17032888438107707, -0.0927289298259282, 0.3538619405930014, -47.188593898273666, -0.20234621300203126, -1.7826694208790619, -1.2034544523532362, -0.6005655451281802, 1.0855987487083427, -3.3303095370864497, -3.9405339747234303, 2.199785034422245, 1.7037377288498614, 1.1171314799060934, -1.6984146998990262, -0.2105433111425989, -1.0838304691170773, -2.107859975533933, -2.3337942645139726, -1.8932296776031652, -0.26559118394159026, 2.1145802825657176, -1.2662143834502861, -2.0994193368030265, 7.319058774235935, -1.1614065912400473, 2.946843222289208, 0.12974139539198332, -1.7599016079903451, -1.4750566653051, -1.9880173975423527, -0.284473938288931, -2.029719075197441, 1.6919741747666623, -1.162647550648815, -1.3758305587518003, 26.286661050987977, 0.40462493947666295, -3.100329635820188, 0.47148385856077085, 0.10995268944570852, -0.04921619452126873, -0.7897003538117586, -2.915837907906825, 3.4074872499162447, -1.3161472224430535, 1.5154365265723426, -3.221288440726706, -0.8934818970287008, -2.088405642760824, 0.8644142411195919], [0.6010520200975463, 0.9319488388428864, 0.7218606906337989, -0.6438355157321104, -9.929499179817324, 2.0481882874506803, 0.44428481584982693, 4.154733523214877, -0.6492003994275003, 2.7918066612288004, -0.682688168659184, 0.33227880243896335, -2.294343499665031, -5.866465456848544, 4.17092682809035, 1.1913916686444568, 0.6417691040733821, 3.5534457078875503, -0.8270940241401102, -20.324399211798962, -6.626098930415572, 3.5765513811255576, 14.625034568410491, 4.24452810846991, 1.5559453060192425, -2.933288921198233, 0.8077523427485499, 1.7803117805960624, 0.06102990771375528, -0.5863899211672031, 2.0482278220675654, 2.058338265368897, 3.18735568896038, 1.8793678293843492, -0.7672851731259355, 1.209422790624069, 1.4327803618348167, -1.9558458138890156, 0.6880623806359208, -0.5015573002106081, 3.4737117049773523, 0.010085068813601203, 0.136773977167681, 1.6565941545241347, 1.3879794732258677, 0.22478279081736688, 1.9149905043737119, 2.7891899265136026, 1.2751361294524963, 0.14771310644215088, 2.609717801178356, -0.6998521338136204, 1.74653557207999, -3.473647241945859, -5.429300480901778, -13.166566826107886, -1.5242715482170717, 1.3918050708316076, 2.316264246973231, 2.7496060153045083, 3.8583640609946968, -0.20263361192995502, 2.2692871849560095, 1.4041949326912089, -18.17039944957521, -0.3810780973650909, -8.443911854086831, -0.1470501177982053, -2.7797028818063665, 17.02941257088671, 7.5434269552889575, -8.416736132221349, 19.28196436087096, 0.7108494624298386, -1.6535328050184603, 0.6693536342750553, 0.9003673698622977, 1.7198062049495968, 3.953729454470196, 1.3744697300401112, -0.6533541617079052, -0.7309961663218018, -0.573746402794108, 3.334252801299525, -6.90507554730864, 1.0687705320578635, 0.7260998780456992, 7.2345133125007495, 0.3885922787282037, -3.4676833107329608, -0.22074257874009126, -0.8956081080110417, 3.852525156110611, -11.570201168630723, -3.3381590753541155, -4.371650941466618, -2.8240597657194786, 2.0314359590931113, 2.3876848594196383, 5.09170281940023, 1.9217924514318725, -0.0679183902164786, 4.035457084099911, -1.6455666570860619, 1.873377828923412, -1.7045462631892458, -16.509247893472732, 1.8746845586589227, -1.0653169300186358, -1.4153261980734648, 0.37479219069784386, 1.945953641151054, 1.8937622686821192, 0.5505065157384935, -9.882705293266861, -1.172663758576611, 2.8884203858151785, 3.331506173087051, -0.14003289571907565, 1.8704226995349338]]], "biases": [[-0.58644961303729, -1.926853598175296, -3.1153190195937417, -136.2382874021347, -117.09979741040416, 2.8984745220258152, -0.319901491040193, -2.9422812956155178, -0.48981383244759724, -136.1459652273741, -4.409150441741558, -33.70351370504686, -6.0104779616531046, -42.09787859636373, -97.34530776124319, -3.460966024783691, -2.483358132291257, -83.19071177165341, -2.9565238890742496, -95.38396091244388, -36.51657355600887, -3.6512398688707397, -98.9276384565032, -21.397505587322485, -0.8605139699987707, -3.8014974618669855, -0.1272396611263614, -46.441396024635374, -3.69830397951009, -3.3742825473459153, 2.315502629575878, 0.332686382286973, -30.707001770238534, 1.7853549110132954, 0.6973550707726399, -40.61597346550971, 0.610751527963437, -4.054206402451527, -5.338021588992863, -1.1868346885131251, 1.7844744122693, -4.805147212038236, -3.051398011230182, -2.1952265393462853, -2.8272187250099874, -4.030648261622634, 0.037238209692678444, -4.304574475874354, 0.680631662099269, 0.6448394425824927, -30.25346739155186, -2.659147958048882, -1.3644501505710234, -8.448907703243215, -99.05391594736871, -95.1620162273361, -3.6102086947940997, 0.19038322834329938, -1.9491878463663648, 2.4078603913718952, -1.4729236983195966, -5.655446097396215, -1.4583924890345017, -2.65986286619104, -95.5357170568441, -4.480191255851762, -36.00692085411715, -5.331060990314246, -4.113474143100602, -101.47450095403019, -97.474150741154, -52.75168869403249, -139.68242974123112, -6.645016605951162, -16.788898160430563, 0.38269058701465675, -2.7706019972861693, 0.3913795090081319, 1.3513559493081264, 0.7295314822534343, -11.327095300573978, -5.9782378558046725, -6.091217753956881, 2.6132154438538073, -52.04761337611068, -2.409404201808511, -0.3140667115033099, -97.43882397306389, -25.79820870739634, -27.571123265015043, -6.470432167819284, -0.7572527460219207, 0.05469269836871101, -117.2138397297806, -9.030817395438966, -23.374867421440086, -12.271827142681882, 2.68128668507333, -5.636798480946494, -1.2214050318723393, -4.179145090480438, -9.488556125568104, -7.757590190325995, -1.924145927565717, -21.493149148546227, -136.087106242269, -95.47219820142219, 0.8852770562197595, -5.706215235794448, -1.032292617506142, -1.1301299558373414, -4.1015047648144245, 1.6215994307675259, -20.902346352476037, -83.57277618524493, -15.52358589400591, 2.112348120592483, -0.728334138545531, 0.6887449493908826, -2.32860510221507], [-2.0401878782742706, -3.9434841522269477, -2.0757280716468838, -3.0021926499584355, 4.371124320601454]]}