{"weight": [[[702.2555357524988, 704.7324913116618, 700.809770093834], [700.321338726174, 701.4843120322525, 703.4589993941182], [703.5473881419285, 702.9206943821429, 703.3592196301927], [702.832960662063, 703.8551408445371, 702.851525970774], [704.2097651633021, 701.969670769348, 702.6755347310359], [702.8856330862187, 703.0229630549743, 703.4849512844349], [703.137529504884, 703.0519663371539, 703.1173371463583], [702.2969141934759, 702.6297119290307, 701.7751827231277], [704.6717971975269, 701.0607688328812, 702.6293419347537], [702.6796450409921, 701.8299686186152, 703.1489679750981], [703.5147094924542, 701.9713792420197, 704.7976987159645], [702.4294214722416, 701.7787185298668, 701.2560908772173], [702.8915597411218, 703.7194395639269, 704.3666467393078], [703.7195129597935, 703.5523996191596, 702.6339882918875], [704.6583206252004, 703.6840564674992, 702.0154891677385], [703.1577055507313, 701.6563698847697, 701.6675136550423], [701.0158972674278, 703.5269964090945, 701.4294474277375], [703.5566579540407, 701.8953304039969, 703.2511014163164], [703.9619227101049, 702.77684684283, 702.4622976853725], [703.5321482466669, 701.1343750548751, 701.8955571619186], [702.3315137274171, 703.4743034265039, 702.132408710413], [702.8320684251088, 702.1560181222585, 703.5862105069358], [702.9849048401348, 705.1381409747946, 702.055196468455], [702.3539682883608, 701.8726009972288, 702.1180324213216], [703.0890419994865, 703.5401223450006, 704.4193018709577], [701.6889168350256, 702.2006519041041, 702.6430940531429], [703.5061986799492, 701.1565483602229, 704.9887919974117], [703.7921693492971, 703.0467789919697, 702.9711226981238], [703.5793716685876, 703.8565741258542, 700.5967050847141], [703.0459194594328, 703.0865222055746, 701.8125901133977], [705.4909826364582, 703.3608001937241, 701.3354569101912], [704.1503767951874, 702.3151058654779, 704.1320222057027], [701.2488439952446, 701.0892178688391, 703.2753783915842], [703.8753132568963, 703.2633590407377, 702.6494109526544], [701.9234314006967, 702.5587092731706, 702.7748697306425], [702.6293166641233, 703.1512498364967, 702.8195135249745], [702.98016812459, 703.1960297402383, 703.1730628209202], [699.9461619751097, 701.2699641777459, 702.6247982152427], [705.0847566523173, 701.701913375159, 701.6413891887663], [702.198467337401, 703.6814537919981, 701.5377263711681], [704.8069291632756, 701.4551794170811, 700.9397927691303], [702.8377701790317, 701.7956832238526, 703.5942738778276], [703.4358961874298, 700.8985930594259, 703.1536737265418], [701.7776713596426, 703.7099829757452, 703.4031443721364], [702.3397131591133, 700.8607284796018, 704.0357046586251], [701.7777676939213, 701.4306208201283, 703.3372289860702], [703.9375118658176, 702.1195946077735, 702.8028580391136], [702.5961174991173, 703.4820069198897, 703.139795291479], [702.1683480792967, 702.5664378204269, 703.0641941781449], [703.0375898376409, 702.48346589704, 703.9635919090341], [702.6908586733031, 701.5780555874421, 702.4430954770253], [702.9085793811524, 703.3027615494519, 701.597854900457], [703.6271510046879, 703.18878416373, 703.1223002270372], [703.1652943358, 704.1217753203666, 702.6781733966519], [702.1345489412157, 702.3511709288117, 702.8942316707635], [705.7335033372641, 701.5639611218404, 702.5422493273915], [702.6364420190009, 701.9174600422907, 701.0013306169793], [700.972569745355, 701.8710627087088, 701.8286715923775], [705.170579074009, 703.2148703784936, 702.5285809582268], [704.7720721055456, 703.0882912590384, 703.0920879642724], [704.384000685735, 703.0342180919707, 702.5775072824695], [703.8581717277567, 702.3841271120308, 701.3432534649013], [703.5598916698073, 702.2927779572797, 702.3079727857186], [703.4150040764563, 703.7276147987606, 703.1345739924695], [702.2004651759919, 703.378756595935, 702.754946577049], [705.0525314598038, 703.1208777748785, 701.6817669763639], [703.2689959090195, 701.8888084006974, 703.4395466621081], [701.4583395177854, 702.1455233812595, 702.5131855676032], [702.5471861257404, 701.1440370260473, 702.5061845680383], [704.5734105633022, 703.1174266676677, 702.9012594317765], [702.8618112155922, 703.4967950457725, 701.2874652600285], [703.4006274959162, 701.2611465569278, 700.8901979619807], [702.2990362818554, 702.274887266816, 701.454112411074], [704.0388208133073, 703.126437349351, 701.7082816378413], [704.0052616288209, 704.0173807636547, 703.3568015320423], [701.275718963225, 704.9705591632346, 702.1550247712296], [704.0357896809119, 703.014007820298, 702.4244463502349], [703.804817312033, 701.8760621486991, 703.501571885573], [702.3314798679627, 703.6264274406388, 704.1226958014347], [703.5611383164153, 704.5023758345569, 703.3125379333004], [704.0893357425484, 704.0483228917211, 703.0944381761703], [704.540956815406, 702.0354901110421, 703.5354776718336], [702.7853638393116, 702.4558864301148, 703.7362688878299], [701.9197241251126, 703.4105469443022, 701.7049773341882], [703.710538176609, 703.5216686976793, 702.7271398145904], [702.3032370014221, 703.9118749340333, 704.2668737878424], [702.9696357129577, 703.2129426118242, 703.3244714186386], [702.5519538037042, 701.3105675407504, 703.1411307649413], [703.5944492240974, 702.5521598466636, 703.3961394928244], [703.6636508418694, 704.2021674882607, 702.2409151395723], [701.51799018119, 701.5157179024901, 701.2524045297849], [702.5371857190714, 703.6131566605573, 702.3357328475661], [703.8865933109736, 702.8850363191398, 702.2060863377401], [703.8314157721559, 703.6160428643506, 704.1479816760436], [701.281184327566, 701.448515946034, 703.6823679391497], [701.6660647475599, 702.9242114596619, 701.5272533745363], [702.5281612364843, 703.0185447709551, 701.120992650338], [701.8452165899631, 703.3822512137111, 703.7213317103334], [701.5411807411614, 701.985314548159, 702.6071671636955], [703.6720068183195, 704.0966576640444, 704.8722403821004], [703.4582440546436, 702.3534040598448, 703.1292332005904], [703.0193074700611, 702.7354509139125, 700.8862371335525], [702.0494824899099, 700.9491795502944, 701.8950394378284], [705.9538679581038, 702.9651388923977, 702.126954726808], [702.5744615274565, 704.7542281788822, 702.5855591933413], [704.0964439522141, 701.659012864951, 701.208628299681], [703.5931275521785, 704.2965843437221, 702.7010503962271], [701.2555572611277, 701.7391998485201, 704.4200125324618], [702.1627692865128, 702.9097471012842, 704.4460828508206], [703.4641591459803, 703.0846164943829, 703.5209743764108], [702.0626789628407, 701.5875778274454, 703.2397385228153], [701.310064636371, 702.213415960796, 702.7841764268909], [703.0609647894603, 702.4888326006778, 700.5444169641944], [704.3931996623904, 702.1845246409082, 701.9014866963564], [701.5985897114828, 704.1931895337251, 701.5654353070835], [701.8712215732562, 702.4641089653172, 704.3025853093602], [703.1555081432549, 702.5832037338262, 700.6743814503584], [702.5533646772885, 703.9774923040276, 702.376514937757], [704.8043530416401, 702.7210844194193, 702.5555851165303], [701.5147562361072, 702.9799828563798, 703.2421341742444]], [[1.948413850210568, -1.623619458919761, 0.163484769564313, 30.398847868579654, -0.9269062739884019, -2.7921186656357135, -1.3946046191978296, 0.6787204985028475, -1.8085015083765286, -2.5465550662087186, 1.3449818630399464, -3.520742329440751, -1.5806966980599904, -1.3636311577776112, -2.4400255394980133, -0.9940403636219283, 2.778466036279322, -0.5101959909964987, -1.7961064657703356, -3.577191178045323, -1.1016098292818186, 1.7775450239733916, 6.552554952643454, -1.0357485373957465, -0.27230004118034845, -0.2662458355331552, 1.4406969156495737, -0.5455392112120879, -2.5619166376068745, -0.09848728575917196, -2.7272920523364017, 1.8235471217815835, -3.2634080289140575, -1.0342764823459984, -0.11392660715820419, -1.212125754205121, -0.07431991482705833, 1.8970905405899785, -0.6489003291476573, 4.492338788937828, -16.28685715586544, -2.5264362749917297, 0.8674023052670325, 3.154110296077913, 1.5632711647318274, -1.5852893985111494, -3.8220242478665507, -3.657654177595725, 0.5843815950925962, 0.5573289625263119, -4.575706626605673, 4.380654361771181, -0.5201127018137307, 4.045140481327265, -2.3482300709207595, -15.633330586454482, 0.8843877225156719, -3.2299697581691995, -11.355413310964504, 7.282364881712082, -0.2225373282174596, 1.4885505690545044, -1.4548646173844033, -1.1053889883349837, -0.27362996223588454, 0.739551456831716, -2.0592394430122565, -3.138327347534473, -0.6580697601485849, -2.6624958673377193, -2.704955990968774, -3.007263741105581, -2.9456247221987604, -3.1310282796422606, 4.964769373483233, 3.4751311725623437, 1.3853110741630017, 1.2109173495567152, 3.471898654123199, -1.220206090799385, 0.2313572307885615, -2.8715948636485744, -2.9497793317893612, -1.8129289265692266, 0.2404405463995896, -1.2857403730104218, -1.480312129627218, -1.9474004074553206, 2.9215582146013284, 2.2786478774934262, 0.23147740956962667, -2.787253493685103, 0.7616559250837401, 28.1661071960717, -1.3154000613223649, 3.6682168812914626, -1.2744804735379223, -0.03940936950117348, 0.34994297408528896, 2.296969849032934, 0.9499973282955904, -0.4615173613148842, -2.3408673818737618, -12.399558431277276, 5.500131513302331, -4.362725347344035, 3.762603179284143, 0.9663498357842536, 0.11901862953969664, -1.2009830150402858, 5.055328934156333, -1.2139875681654946, 2.208828065299929, -2.2325725006263615, -2.2256169542762625, 0.6432350010207474, -15.064052668625258, -1.3226855305352907, -1.1834546585613026, -3.4150617027580377], [14.929574124766237, -0.6716933458874225, -5.418416942434143, 6.898047166073233, -2.6299737313582585, -0.4490561575665596, 1.4734263395131941, 0.33801735974960345, 0.48590867251619585, 0.13775171820925777, -8.790651773194686, 2.02666081302873, -4.113432357508157, 0.49439713620739134, -0.9745973884872091, 0.855289220536057, 5.606563424292237, -1.3514832386460671, -0.06420778330802282, 0.7282647323235382, 0.4998828865703422, -5.255554736723098, 16.667715057890177, 0.7779790149122517, -0.2779569135967318, -0.8329196560870763, -13.037141970333511, -1.3613873461092794, -0.012837135862257187, 1.2082165720130515, -0.41151095098138524, -6.668985369291595, 1.825844327440081, -1.0112323124877098, 1.2620250666974402, 0.1526369725809585, 1.477764248394552, -2.9416827092520834, -1.195993403967236, 7.993034637752899, 15.64126574272612, -0.5769447531290081, -8.789104187383717, -0.9118560935250778, -8.833428362650693, 0.05699950751475016, 0.9610745509605968, -0.7471953898138574, -1.4206673545227486, -5.8986148655480735, 1.0757707398524639, 4.9330020371426615, -3.028425891404567, 0.8537385674329533, 0.5674363070208429, 12.450194093486356, -0.5670991550680818, 1.398387786597717, 16.634426735061925, 4.169428784918408, -5.109675773611463, -4.518632009432712, 0.3648184208933871, 0.8774355973327718, 1.418394258293412, -1.1022801032689473, -1.5570928981475662, 1.9917196803190131, -3.95204907883539, 0.38785828782325604, -0.4305015238352722, 1.1327445538520757, 0.08047741180644294, 0.17450051374672956, 3.5600952275617685, 10.071570823206192, -2.345470702997002, -6.924496279748031, -1.2958446916968314, -0.06866744913732559, -0.2575636419207169, 1.1550899992309185, -1.574361935151458, 2.2328186409551125, -2.0122602035895274, 0.17699374088196798, -0.39196334117864406, -5.831813090123652, -7.096185314273407, 2.1287459353233085, -0.10969099041916205, 0.7747167509864609, -0.05710066953191462, -3.2920377624978525, -0.22148279776507876, 2.0241345304206457, 1.6569757233320506, -0.4501108928110892, -0.5139950064718072, -5.178919063595095, -3.7857298673768036, 2.980949372711111, 0.673187024371969, 12.62836852752163, 11.201351212208795, 2.690925103582862, 6.1576313743399185, -6.559212868373538, -3.900287292857674, -1.653177913392131, -5.44618772822213, -0.15361282524422867, 2.680550256918344, -1.5000941513259825, 0.1699077975864627, -0.566694334378523, 17.246124820190147, 0.95441869937336, -0.5277830955575337, -1.2093781135202952], [-15.387413707711385, 0.543256131574193, 0.41079207699895537, -3.634419440569358, 1.7311387475716828, -1.2765372083516517, -2.2562265637382852, 0.14151109715516186, -2.1094603025046537, -0.08362556791914462, 13.552362509610454, -0.48729416772941914, 2.0844183375082492, -0.5190714308788621, -1.658151577694976, -0.27848478381963515, -6.98157502372207, -0.20184214243701942, -0.081209244037162, -0.3606192261993221, -0.21358763483157706, 10.371830592568564, -3.1607087388075352, -0.21166954484145106, -1.9942604023208634, -0.7646138809128565, 19.700421258688152, -1.0845716976170219, -3.0397134095666836, -5.553573349669311, -1.9465725945576247, 12.905787341831624, -1.6319714069076894, -1.675648113564256, 2.088256841052276, 0.43960572067038706, -0.1657827231137355, 0.9461871864785382, 0.48189099057622575, -12.447385929823474, -0.8601829044181506, -2.676712681129822, 19.15263790415847, -1.651083307378221, 17.382688394994705, -1.0809818379275438, -2.545968175123492, -2.0011019870461504, 1.4295652747428051, 5.9699430959971425, -1.797596355972506, -7.279724705218161, 0.11916961316181225, -6.496686069798359, -1.3598220187323977, -0.11998468527166235, -3.549598579494284, -2.20045765645584, -2.3059523971578226, 5.088296630664948, -3.59403716820614, -3.048711519169238, 1.3770565754955575, -1.2942122852698223, -0.49793931925843604, 0.11443907838489166, -2.418085452174548, -2.3681229766017076, 0.01307752696842974, -3.161980784434726, -0.9059812963370203, -2.330354316711796, -1.513553928738121, -2.3875442808356135, -0.40753042383143845, -12.574515955137526, -3.3574542088163115, 15.48267413760035, 1.9653202433831813, -0.8632053534556364, -0.5006517301969995, -2.086113886332858, -0.12223062012657364, -2.122350968504368, -1.2833932702260449, 0.6484324462972199, 1.3478208964451306, 15.366324773022662, -1.71634256871795, -4.9780831595066415, 0.03589508723689582, -2.419681695453419, 0.5118556100619623, -2.712378177169405, 0.09958662698993374, -6.774631558069696, -1.5320067032235825, -1.1946842871256957, 1.6756014025613286, 1.692302126578927, 1.5492962102712453, -3.5891721800791814, -0.7562819107677236, -2.7145210695573616, -10.071943446732472, -1.0532443927231436, -10.539565235355067, 13.483365221881208, 4.13259517770618, 0.1284890446916942, 8.917607014657735, -1.5823030340642408, -3.6918339000767766, -0.06612635659729908, -1.8332307783277253, -0.2588738758232131, -5.16101531663153, -1.0473333728702698, 0.6176435538914761, -0.44839230600147917], [9.529466280269153, -1.2487639719104127, 3.342483886457211, -14.142335896438745, 1.9712169074581596, -1.4137536481883435, -0.6827500363377519, 0.27082251493297826, -1.448979633514374, 0.24575026197260505, -4.232420714956683, -1.0918441440470577, -0.7523351671187135, 2.023233166137967, 0.5662052086259699, 0.041859369736441776, -1.3687725762453373, 2.886676164643744, 2.178426422725272, 1.2206553016633566, 0.5303396482110827, -4.641584111892834, -1.7089320665896268, -1.3039726909473812, -1.9726446073001813, 1.6878499238754403, -7.6650366088628905, 0.9427996337454534, -0.6443443851916526, 3.2738194629993145, -0.0458914529894696, -3.001067662659806, -2.1827936603170133, 0.09423045102145157, -0.2674484400674568, 0.6401794382330541, 1.6564826426121633, -3.6445131924536764, 1.1677605946536118, 8.869037646752096, -3.5461456373628484, -0.4123835177633528, -8.460702388318722, 1.1919349553447771, -7.049291846704337, -2.220078559671195, -1.3074823102939772, -0.3237333503192352, 1.2436586129065603, 1.2233993811535322, 0.005105581121802264, 0.38126964005307007, 3.205432096249178, 3.23905729729734, -0.7733686351676221, -2.5388647194435094, 3.4190643508703524, -0.5047828480951447, -3.9245349103595686, 5.059408774382298, 2.4250835322130864, 2.8814815609239104, 1.1582674824446, -1.0748574844646435, 0.41744547516354324, 3.662652659063206, 1.0676978553249195, -1.731050858892244, -0.2819469357443657, 0.27654779172320776, -0.4377703880095636, -0.36124303455933116, 1.5314470906904842, 0.34750196177191994, 3.9840295495892035, -1.8180196574173857, 3.079094982302426, -8.857800342853217, 0.877787570810213, -0.23911724880387075, 1.5792501695466232, -0.31859601347456756, -1.6126025178023646, -0.42114372350389095, 1.4182463401264729, 0.7092871015224063, 0.5926942307107832, -7.231291939549459, 3.78634643335475, 1.8237237130955182, -0.18749989310288345, 0.17151445208556654, 2.4063423918352425, -2.585615615355435, -1.3782303369075988, 2.849120939879374, -0.3896299582593423, 0.7964620978633352, -0.4381841806884046, 3.179609276132273, 2.140188692755775, 0.2572291695118485, -0.5870339462889111, -0.9143993361060674, 9.559168566469396, 0.38006518950734924, -2.6495294257982827, -9.640534169676505, 0.5551905007516376, 0.4410993638438342, -5.27255914311531, -0.007953750847494246, 1.2966618157214673, 1.2773880399593474, -0.8281204295983606, -1.4237861521914985, -2.411232324453234, 0.7435127181616648, 0.9389796467842508, 1.1842134207271087], [-1.949464745153746, -1.82600193927654, -0.8805629290025223, -7.10543346480484, -0.7689287603549713, -3.1245239671194835, -2.573474418716932, -0.5480308954894748, -2.344737816324899, -2.260128048955768, 13.552489662194548, -0.4343284579963037, 0.7577924781580279, -1.7449613335161829, -1.3628282115221444, -1.9798858258890728, 7.958842787230238, 1.2288819002354805, -1.7021992941768056, -2.2922227128744255, -2.0352319774881127, 9.166286080657446, -16.247372345058533, -1.807202456645778, -1.3007112326578987, -0.6862051610493596, 13.72160907150441, 1.2805868763815675, -3.2635141183174343, 2.1263938640487967, -2.320032150024796, 11.036338310220245, -2.178909581111291, -3.236149135548262, -2.9132355635584353, -0.7127895151276569, -0.5087883998510006, 2.496502924444545, -1.423481437534411, -1.873259710869695, -1.6878259683083083, -1.7759547437133174, 10.310416796058826, 5.3699167560209515, 13.963509973593863, -2.9535832428732287, -4.1077086653014545, -3.196464877758648, 1.9240271416911947, 4.557411123343377, 0.42035871463587404, 0.9514021678471865, -1.6797395898587906, 1.8593883115727425, -2.4704905007858593, -1.9189242389794257, 1.644112732475697, -2.415118961085575, -0.669624381606867, -21.405019904691105, -3.69617222743469, -3.267839037813457, 0.45695467526005473, -1.9849484185736788, -2.36331805981258, -1.9484361014286928, -1.6371787260303814, -3.5675363737705257, 1.551119599574556, -3.92580329402306, -2.556969034803925, -2.117806418414284, -1.6713659669916583, -2.7760812998976445, -17.28128942675432, 9.463613013381659, 2.358619855727342, 8.279138799157328, 4.2494159016301, -0.7563242702993189, -0.05305478936793298, -3.3185403989256774, -0.8595941080733478, -3.2073602927764253, -0.2011034193511836, 0.10123045734328966, -1.679105272584492, 8.826768114257542, -1.8196147196195838, 3.6603783551561375, -1.991108602026413, -2.512960572972005, -0.5342275101376941, -7.112463468716985, -1.953658648869988, 1.7167037597189154, -2.2996090301399943, -1.9826039470335541, 0.7653591199318717, 4.431606445996489, 1.4217463218235877, 1.0253332690880697, -0.36091889558117096, -1.4993434411552269, 0.06015371053590216, -2.3673861745381743, 1.7167041249230122, 10.620919869756982, 3.2674883649267605, -0.9353315569832885, 9.965458245099853, -6.185882632894555, 1.3996841552871164, -1.3864196989665587, -2.54176906255926, -1.8699467795794373, -2.558476536296094, -0.5755457971982723, -1.125238894143138, -3.63473963280758]]], "biases": [[-92.3300234580284, -0.6489164640737071, -6.350578547615341, -107.1097703650986, -4.69380792162411, 1.2621848981152268, 2.40060071813719, -2.908554568348416, 1.5602602643235273, 0.22266836339345933, -67.71777441813893, 0.3061089576534781, -6.574022934766677, -1.337157590740906, 0.2737088981807222, -0.14251464202255965, -35.18688235357174, -4.798239038512787, -4.1842878113667314, 0.0016095227181563377, -0.6341101703039616, -61.19891852390159, -89.58458697604459, -0.17643379565902345, -0.14975394181529847, -4.56838594000887, -87.48472223708578, -3.334208331655865, 0.9316689276765898, -19.143780064295015, 1.3032882576420919, -69.60826409705048, 2.2173157097823517, 0.8480472380939432, -1.4882885559949344, -1.8691448846529155, -2.6980287122711237, -9.760879025157548, -2.03999859846343, -91.99338055834583, -125.24482690510442, 1.5551215964244227, -87.48977055715741, -18.536764324798227, -87.27887519163238, 1.6649287959904917, 2.873217366033698, 1.682058955045646, -7.162965159902491, -24.68452395110113, 0.7926174081048363, -41.08758044467933, -3.829526238387761, -24.531532471600908, 0.908376725671897, -125.41432041971913, -13.634910553572967, 1.6711752289922421, -125.21787142511582, -90.11451033469777, -19.984127054320588, -20.925542911247756, -2.9790124150596307, 0.8267107604661345, -0.5951743110003711, -2.383710119096134, -0.24031992096442037, 2.4998229138690067, -8.21579705464168, 2.3377393890700384, 2.14598377205296, 0.9907391016903903, 0.5895613468856499, 1.3039408814313684, -90.05790718018325, -64.13849097618252, -14.767340787678474, -87.4013679573081, -13.667583024917226, -0.8142092818325044, -3.2633977144813717, 2.4689219600938053, -0.6165778962132494, 0.8012995624914445, -2.6233170740954592, -2.217963206254508, -1.5144422677816087, -87.25760525951544, -17.024422506625275, -20.71317726809739, -1.6772937600674156, 1.23637333712359, -3.6697681799692123, -105.87018609745347, -0.14149011600537967, -25.111611683706688, -0.9186504826909914, -0.45813793453561746, -4.745173065739694, -19.320532379864886, -10.039416100523358, -15.818582840164034, -0.30070713132355037, -125.49016610184552, -92.02890165036283, 1.1093168041796737, -64.89201835551728, -87.15653502819121, -15.040148569780646, -1.9346383024500173, -58.56278085476104, 1.8018233362609786, -18.41986175054678, -2.0519798337013055, 2.049292049829755, -1.3705973363045025, -125.2499517275457, -1.3306357104390718, -1.827317464538027, 1.4423732776610518], [-2.923129515098092, 2.03568522258568, -3.2775310956440826, -0.7723491482595455, -4.241129117724285]]}